/*!
 * The following copyright notice may not be removed under any circumstances.
 * 
 * Copyright:
 * Created by Raph Levien using his own tools and FontForge. Copyright 2006 Raph
 * Levien. Released under the SIL Open Font License, http://scripts.sil.org/OFL.
 */
Cufon.registerFont({"w":500,"face":{"font-family":"Inconsolata","font-weight":500,"font-stretch":"normal","units-per-em":"1000","panose-1":"2 11 6 9 3 0 3 0 0 0","ascent":"820","descent":"-180","x-height":"12","cap-height":"1","bbox":"4 -802 498 177","underline-thickness":"50","underline-position":"-75","stemh":"63","stemv":"66","unicode-range":"U+0020-U+2122"},"glyphs":{" ":{},"!":{"d":"299,-48v0,33,-27,59,-60,59v-33,0,-59,-26,-59,-59v0,-33,26,-59,59,-59v33,0,60,26,60,59xm190,-593v0,-43,20,-75,51,-75v31,0,51,30,51,84v0,38,-7,76,-9,114r-18,276r-50,0r-15,-276v-3,-66,-10,-91,-10,-123"},"\"":{"d":"397,-605v0,30,-40,143,-58,193r-55,-13v11,-39,29,-75,31,-123v0,-22,-6,-41,-6,-63v0,-40,24,-55,43,-55v20,0,45,16,45,61xm224,-605v0,30,-39,143,-57,193r-56,-13v11,-39,30,-75,32,-123v0,-22,-7,-41,-7,-63v0,-40,24,-55,43,-55v20,0,45,16,45,61"},"#":{"d":"173,-624r61,-3r-21,172r110,-1r20,-163r62,-2r-20,164r91,-1r-6,48r-91,1r-21,168r99,-2r-5,47r-99,2r-22,180r-61,4r22,-183r-111,1r-21,178r-59,3r21,-180r-97,2r4,-46r99,-2r20,-170r-109,1r3,-47r111,-1xm207,-407r-20,169r110,-2r21,-168"},"$":{"d":"235,-651r64,0v3,9,-6,10,-6,21r0,38v59,6,112,33,149,77r-43,54v-8,-3,-3,-16,-11,-21v-21,-25,-52,-44,-95,-51r0,193v23,8,46,15,67,24v21,9,100,44,100,135v0,72,-54,150,-167,165r0,63r-58,0r0,-61v-69,-4,-130,-32,-175,-80r43,-60v10,7,-1,14,7,21v28,30,72,55,125,61r0,-220v-18,-6,-37,-12,-55,-21v-84,-40,-101,-97,-101,-133v0,-72,64,-133,156,-145r0,-60xm293,-273r0,199v64,-12,102,-58,102,-103v0,-21,-8,-53,-50,-76v-14,-7,-32,-14,-52,-20xm235,-361r0,-173v-63,7,-90,45,-90,80v0,22,11,52,55,77v10,6,22,11,35,16"},"%":{"d":"391,-623r67,0r-348,623r-64,0xm140,-634v61,0,112,56,112,132v0,74,-50,129,-111,129v-61,0,-113,-56,-113,-131v0,-77,53,-130,112,-130xm138,-582v-20,0,-49,16,-49,75v0,68,33,81,51,81v20,0,49,-16,49,-74v0,-71,-35,-82,-51,-82xm482,-120v0,75,-50,130,-111,130v-61,0,-112,-55,-112,-129v0,-75,51,-130,112,-130v61,0,111,55,111,129xm371,-198v-21,0,-53,18,-53,79v0,59,30,79,53,79v21,0,52,-17,52,-77v0,-64,-31,-81,-52,-81"},"&":{"d":"367,-173v25,-32,39,-58,46,-89v-1,-8,-3,-18,3,-22r65,45v-23,41,-48,79,-76,116r70,91r-59,44r-55,-88v-40,49,-102,86,-169,86v-90,0,-156,-67,-156,-156v0,-77,49,-155,126,-197v-37,-45,-71,-100,-71,-155v0,-75,62,-131,138,-131v75,0,134,56,134,133v0,65,-43,130,-108,166xm160,-497v0,26,11,62,61,124v46,-26,76,-72,76,-118v0,-47,-32,-79,-69,-79v-35,0,-68,29,-68,73xm197,-296v-53,34,-85,91,-85,143v0,58,40,99,91,99v67,0,121,-69,121,-69"},"'":{"d":"319,-605v0,30,-40,143,-58,193r-55,-13v11,-39,30,-75,32,-123v0,-22,-7,-41,-7,-63v0,-40,24,-55,43,-55v20,0,45,16,45,61"},"(":{"d":"392,-666r30,61v-9,6,-19,-1,-28,4v-116,70,-186,196,-186,339v0,155,80,303,217,382r-32,53v-158,-83,-254,-249,-254,-431v0,-183,98,-340,253,-408"},")":{"d":"78,-603r19,-62v162,75,267,236,267,414v0,180,-107,346,-273,425r-19,-60v135,-72,221,-212,221,-362v0,-148,-83,-285,-215,-355"},"*":{"d":"213,-519r81,0v-13,54,-13,118,-21,177r159,-72r26,61r-171,52r126,151r-55,43r-108,-166r-112,167r-54,-44r130,-150r-173,-53r26,-65r162,76"},"+":{"d":"222,-523r63,0r0,171r171,0r0,61r-171,0r0,187r-63,0r0,-187r-177,0r0,-61r177,0r0,-171"},",":{"d":"230,34v0,-47,-51,-27,-51,-80v0,-30,24,-57,57,-57v36,0,70,32,70,83v0,52,-37,117,-107,188r-34,-30v24,-22,40,-46,50,-62v5,-8,15,-25,15,-42"},"-":{"d":"71,-348r360,0r0,67r-360,0r0,-67"},".":{"d":"298,-46v0,31,-26,57,-59,57v-33,0,-60,-25,-60,-57v0,-31,27,-58,60,-58v33,0,59,27,59,58"},"\/":{"d":"64,13r313,-678r60,31r-314,676"},"0":{"d":"251,-627v96,0,199,113,199,326v0,214,-108,312,-198,312v-99,0,-202,-116,-202,-318v0,-199,102,-320,201,-320xm349,-485v-27,-55,-65,-81,-99,-81v-62,0,-135,88,-135,247v0,44,5,84,14,118xm372,-418r-220,280v27,55,66,85,103,85v55,0,130,-66,130,-240v0,-48,-5,-90,-13,-125"},"1":{"d":"298,-624r0,570r112,0r0,55r-294,0r0,-55r115,0r0,-483r-123,36r-17,-39r160,-84r47,0"},"2":{"d":"415,-61v11,1,12,-12,24,-9r0,70r-366,0r0,-44v52,-104,110,-168,181,-232v45,-41,110,-95,110,-171v0,-67,-54,-119,-120,-119v-54,0,-92,34,-107,57v-5,8,-2,15,-8,23r-51,-40v37,-63,103,-101,174,-101v102,0,181,78,181,175v0,90,-64,153,-110,196v-45,42,-117,104,-169,195r261,0"},"3":{"d":"411,-467v0,61,-37,114,-93,135v65,24,107,87,107,161v0,97,-73,182,-192,182v-62,0,-122,-25,-164,-71r53,-63v9,9,5,18,13,28v4,5,39,42,97,42v73,0,126,-59,126,-127v1,-84,-81,-129,-178,-116r0,-56v59,0,87,-11,98,-16v43,-19,66,-60,66,-98v0,-53,-44,-97,-108,-97v-39,0,-78,17,-107,48r-39,-43v39,-43,93,-67,149,-67v99,0,172,73,172,158"},"4":{"d":"313,-624r59,0r0,390r80,0r0,62r-80,0r0,172r-73,0r0,-173r-251,0r0,-51xm300,-513r-183,279r183,0r0,-279"},"5":{"d":"106,-623r316,0r0,63r-257,0r-10,179v140,-67,290,9,290,184v0,135,-88,208,-196,208v-74,0,-144,-35,-185,-96r62,-46v9,6,3,15,7,23v3,7,48,58,115,58v67,0,126,-52,126,-148v0,-163,-166,-190,-245,-90r-44,-18"},"6":{"d":"287,-630v51,0,100,21,137,57r-49,53v-9,-7,-9,-16,-15,-22v-4,-4,-31,-26,-72,-26v-45,0,-148,28,-152,241v28,-47,78,-75,132,-75v88,0,171,74,171,204v0,128,-83,208,-178,208v-55,0,-111,-27,-147,-82v-40,-60,-47,-139,-47,-212v0,-60,6,-132,27,-191v38,-109,119,-155,193,-155xm262,-341v-46,0,-94,33,-122,84v-8,116,48,205,124,205v53,0,107,-46,107,-143v0,-107,-59,-146,-109,-146"},"7":{"d":"432,-584v-82,187,-155,381,-218,584r-79,0v37,-112,78,-223,120,-333r90,-224r-266,0r0,-66r353,0r0,39"},"8":{"d":"258,-631v91,0,162,66,162,148v0,60,-39,118,-99,150v70,32,120,99,120,172v0,95,-82,171,-191,171v-107,0,-190,-74,-190,-167v0,-72,51,-139,125,-174v-56,-29,-95,-85,-95,-146v0,-84,73,-154,168,-154xm237,-303v-59,25,-105,78,-105,137v0,63,53,113,121,113v67,0,117,-49,117,-109v0,-61,-53,-116,-133,-141xm253,-572v-54,0,-96,40,-96,89v0,82,110,125,110,125v49,-26,85,-73,85,-121v0,-52,-43,-93,-99,-93"},"9":{"d":"217,10v-51,0,-101,-21,-138,-57r49,-53v11,7,8,17,16,24v0,0,30,23,75,23v45,0,96,-23,123,-86v7,-16,23,-57,26,-154v-29,42,-78,67,-129,67v-91,0,-171,-77,-171,-197v0,-121,82,-206,179,-206v65,0,137,40,169,135v15,43,21,96,21,174v0,102,-15,156,-26,185v-38,100,-118,145,-194,145xm246,-287v45,0,90,-30,118,-76v11,-126,-48,-204,-119,-204v-57,0,-109,50,-109,141v0,93,54,139,110,139"},":":{"d":"298,-365v0,31,-26,57,-59,57v-33,0,-60,-25,-60,-57v0,-31,27,-58,60,-58v33,0,59,27,59,58xm298,-46v0,31,-26,57,-59,57v-33,0,-60,-25,-60,-57v0,-31,27,-58,60,-58v33,0,59,27,59,58"},";":{"d":"230,34v0,-47,-51,-27,-51,-80v0,-30,24,-57,57,-57v36,0,70,32,70,83v0,52,-37,117,-107,188r-34,-30v24,-22,40,-46,50,-62v5,-8,15,-25,15,-42xm298,-365v0,31,-26,57,-59,57v-33,0,-60,-25,-60,-57v0,-31,27,-58,60,-58v33,0,59,27,59,58"},"<":{"d":"458,-496r0,-71r-423,223r0,48r426,249r0,-76r-350,-196"},"=":{"d":"45,-438r411,0r0,61r-411,0r0,-61xm45,-231r411,0r0,61r-411,0r0,-61"},">":{"d":"42,-496r0,-71r424,223r0,48r-426,249r0,-76r349,-196"},"?":{"d":"320,-44v0,31,-26,57,-59,57v-33,0,-59,-25,-59,-57v0,-31,26,-58,59,-58v33,0,59,27,59,58xm64,-561v44,-67,118,-104,193,-104v113,0,177,83,177,176v0,94,-67,131,-99,161v-53,49,-42,75,-43,143r-66,0v1,-78,-8,-107,47,-170v30,-33,82,-73,82,-139v0,-59,-45,-106,-105,-106v-51,0,-103,34,-135,87"},"@":{"d":"435,-30v-42,27,-90,41,-140,41v-125,0,-264,-93,-264,-325v0,-227,131,-319,240,-319v72,0,140,40,172,111v22,48,22,96,22,144r0,203r-60,0r0,-38v-25,30,-61,46,-100,46v-72,0,-130,-58,-130,-130v0,-54,33,-107,95,-132v45,-17,85,-15,132,-15v0,-74,-59,-135,-134,-135v-87,0,-179,82,-179,262v0,195,115,271,212,271v38,0,75,-12,107,-33xm405,-394v-47,0,-88,-3,-128,23v-27,18,-40,45,-40,71v0,43,35,78,79,78v29,0,59,-15,74,-45v18,-35,15,-79,15,-127"},"A":{"d":"15,1r220,-635r8,0r240,634r-72,0r-69,-182r-198,0r-60,183r-69,0xm326,-236r-88,-238r-80,238r168,0"},"B":{"d":"48,-623r177,0v38,0,78,0,117,17v59,25,90,79,90,135v0,60,-36,114,-92,137v70,24,117,88,117,161v0,64,-37,126,-104,154v-43,18,-87,19,-129,19r-176,0r0,-623xm117,-564r0,199v68,-3,129,9,184,-13v81,-33,81,-142,-2,-174v-55,-21,-116,-9,-182,-12xm117,-306r0,245v72,-4,143,11,200,-13v91,-39,87,-177,-4,-217v-58,-26,-123,-12,-196,-15"},"C":{"d":"278,-628v83,0,157,48,191,123r-67,33v-10,-8,-1,-18,-7,-28v-27,-42,-71,-72,-120,-72v-88,0,-166,92,-166,258v0,168,80,264,172,264v49,0,98,-28,127,-76r52,34v-39,64,-109,102,-183,102v-103,0,-236,-77,-236,-318v0,-249,140,-320,237,-320"},"D":{"d":"54,-623v111,5,214,-17,290,33v80,53,116,157,116,277v0,136,-49,243,-138,289v-76,39,-167,21,-268,25r0,-624xm120,-564r0,510v75,-2,123,9,180,-28v50,-34,90,-102,90,-221v0,-89,-20,-179,-78,-226v-58,-47,-110,-32,-192,-35"},"E":{"d":"59,-624r382,0r0,62r-316,0r0,205r261,0r0,64r-261,0r0,231r313,0r0,62r-379,0r0,-624"},"F":{"d":"78,-624r359,0r0,61r-289,0r0,196r233,0r0,61r-233,0r0,306r-70,0r0,-624"},"G":{"d":"277,-629v77,0,145,39,181,104r-49,50v-8,-5,-10,-12,-13,-19v-19,-42,-63,-74,-119,-74v-52,0,-108,29,-140,89v-24,46,-32,102,-32,160v0,66,7,154,60,213v64,72,152,69,230,16r0,-148r-113,0r0,-61r178,0r0,244v-59,43,-125,65,-183,65v-109,0,-241,-78,-241,-314v0,-273,158,-325,241,-325"},"H":{"d":"54,-623r78,0v4,10,-5,12,-5,24r0,243r244,0r0,-267r76,0v5,10,-6,10,-6,22r0,602r-71,0r0,-298r-243,0r0,297r-73,0r0,-623"},"I":{"d":"88,-623r309,0r0,59r-123,0r0,507r129,0r0,58r-322,0r0,-59r123,0r0,-506r-116,0r0,-59"},"J":{"d":"172,-623r285,0r0,59r-96,0r0,355v0,45,-1,92,-25,137v-56,108,-214,107,-287,14r47,-57v6,5,2,12,6,18v2,3,42,46,94,46v30,0,56,-14,73,-39v23,-35,23,-79,23,-118r0,-356r-120,0r0,-59"},"K":{"d":"126,-624v2,12,-9,15,-9,26r0,262r260,-292v25,6,49,5,78,5r-236,269r252,355v-49,0,-89,3,-89,3r-216,-316r-49,54r0,258r-75,0r0,-624r84,0"},"L":{"d":"148,-623v1,16,-10,18,-9,34r0,529r300,0r0,61r-373,0r0,-624r82,0"},"M":{"d":"41,-623r55,0r154,305r157,-306r53,0r0,625r-66,0r0,-471r-135,251r-27,0r-126,-248r0,468r-65,0r0,-624"},"N":{"d":"454,-624v1,13,-7,14,-7,27r0,598r-55,0r-275,-491r0,490r-67,0r0,-623r68,0r262,462r0,-463r74,0"},"O":{"d":"471,-310v0,55,-4,132,-37,199v-41,83,-113,121,-180,121v-95,0,-225,-78,-225,-323v0,-245,132,-317,225,-317v68,0,138,37,179,117v34,67,38,145,38,203xm251,-564v-65,0,-153,56,-153,242v0,198,86,263,156,263v42,0,90,-23,119,-84v26,-54,28,-117,28,-158v0,-53,-3,-113,-24,-165v-29,-72,-82,-98,-126,-98"},"P":{"d":"59,-623r190,0v40,0,78,1,117,21v118,58,120,249,2,307v-69,34,-148,16,-237,20r0,275r-72,0r0,-623xm131,-557r-1,220r126,0v25,0,49,0,73,-12v75,-37,72,-159,-4,-195v-25,-13,-50,-13,-76,-13r-118,0"},"Q":{"d":"251,-566v-68,0,-154,60,-154,243v0,198,85,268,158,268v52,0,149,-39,149,-246v0,-52,-3,-113,-25,-166v-30,-74,-84,-99,-128,-99xm471,-309v0,55,-4,132,-37,199v-34,69,-90,107,-147,117v1,35,11,75,74,75v22,0,49,-4,81,-5r-2,68v-72,-1,-115,4,-154,-15v-45,-23,-61,-66,-60,-123v-91,-14,-197,-98,-197,-319v0,-245,132,-318,225,-318v68,0,139,38,180,119v33,66,37,143,37,202"},"R":{"d":"56,-623r184,0v40,0,80,1,119,21v57,29,88,87,88,150v0,82,-51,153,-127,174r144,278r-78,0r-138,-275r-121,0r0,275r-71,0r0,-623xm127,-557r0,220r121,0v25,0,48,0,72,-12v75,-37,72,-159,-4,-195v-54,-25,-120,-9,-189,-13"},"S":{"d":"435,-549r-44,60v-6,-1,-4,-12,-8,-18v-24,-35,-68,-62,-126,-62v-71,0,-113,43,-113,91v0,25,12,63,64,93v57,33,145,52,199,103v39,37,48,79,48,112v0,78,-56,180,-208,180v-77,0,-146,-27,-195,-80r41,-72v9,6,1,14,8,21v28,35,80,68,148,68v90,0,137,-59,137,-113v0,-28,-12,-60,-53,-86v-47,-30,-136,-50,-194,-93v-52,-38,-67,-86,-67,-122v0,-85,77,-160,190,-160v68,0,131,28,173,78"},"T":{"d":"31,-624r432,0r0,63r-184,0r0,562r-71,0r0,-562r-177,0r0,-63"},"U":{"d":"129,-623v5,13,-10,20,-10,32r0,377v0,31,1,61,15,92v44,97,192,98,237,1v15,-32,16,-64,16,-96r0,-406r67,0r0,405v0,46,-1,89,-25,132v-69,130,-287,129,-355,0v-23,-43,-24,-85,-24,-129r0,-408r79,0"},"V":{"d":"25,-624r73,0r160,479r151,-478r69,0r-209,627r-32,0"},"W":{"d":"17,-623r65,0r67,421r100,-375r22,0r101,377r57,-423r59,0r-99,627r-27,0r-107,-411r-109,411r-29,0"},"X":{"d":"379,-624r70,0r-158,305r177,319r-79,0r-138,-247r-134,247r-76,0r170,-318r-167,-306r75,0r131,237"},"Y":{"d":"28,-624r80,0r153,303r138,-302r74,0r-177,377r0,246r-76,0r0,-246"},"Z":{"d":"62,-623r385,0r-1,49r-308,513r294,0v14,0,19,-8,31,-6r0,68r-413,0r0,-49r314,-512r-302,0r0,-63"},"[":{"d":"131,-670r286,0r0,60r-222,0r0,642r223,0r0,57r-287,0r0,-759"},"\\":{"d":"437,13r-59,29r-314,-676r59,-31"},"]":{"d":"369,-670r0,759r-286,0r0,-57r223,0r0,-642r-222,0r0,-60r285,0"},"^":{"d":"93,-367r153,-256r22,0r135,255r-53,25r-97,-175r-110,175"},"_":{"d":"35,19r431,0r0,61r-431,0r0,-61"},"`":{"d":"219,-461v-20,-21,-59,-129,-80,-185r52,-25v18,40,27,81,54,114v14,17,32,28,46,45v25,30,17,57,2,69v-15,13,-43,15,-74,-18"},"a":{"d":"366,-269v2,-81,-14,-138,-109,-139v-42,0,-94,12,-131,51r-35,-46v79,-88,264,-87,322,12v21,35,22,71,22,108r0,283r-68,0r0,-50v-50,41,-108,61,-164,61v-95,0,-154,-62,-154,-129v0,-51,33,-105,105,-131v63,-23,138,-20,212,-20xm369,-214v-55,1,-120,-4,-167,7v-57,14,-81,51,-81,84v0,41,35,79,96,79v60,0,104,-36,120,-54v39,-45,31,-65,32,-116"},"b":{"d":"144,-665v2,12,-11,11,-11,22r0,256v29,-50,83,-81,141,-81v90,0,183,74,183,234v0,166,-97,245,-191,245v-55,0,-105,-26,-135,-71r-25,60r-46,0r0,-665r84,0xm249,-406v-45,0,-86,26,-104,67v-17,39,-14,138,-9,186v10,87,80,100,111,100v45,0,136,-26,136,-166v0,-161,-91,-187,-134,-187"},"c":{"d":"457,-381r-51,59v-8,-6,-3,-15,-7,-23v-3,-5,-40,-60,-118,-60v-84,0,-151,65,-151,169v0,107,68,182,157,182v46,0,90,-21,121,-56r42,49v-44,47,-105,72,-169,72v-129,0,-225,-101,-225,-239v0,-137,96,-238,230,-238v73,0,135,32,171,85"},"d":{"d":"371,-390r0,-275r77,0v0,12,-10,17,-10,28r1,595v0,14,1,28,5,42r-72,0v-7,-22,-3,-46,-4,-73v-29,51,-83,83,-141,83v-88,0,-182,-73,-182,-242v0,-175,105,-237,192,-237v63,0,112,32,134,79xm240,-410v-53,0,-125,36,-125,166v0,150,76,191,128,191v48,0,94,-33,113,-87v14,-39,11,-150,2,-181v-18,-68,-78,-89,-118,-89"},"e":{"d":"259,-468v75,0,160,39,181,162v4,27,6,57,3,88r-325,0v5,137,95,170,156,170v45,0,88,-18,118,-51r40,39v-39,47,-99,70,-164,70v-124,0,-219,-81,-219,-233v0,-167,101,-245,210,-245xm121,-274r251,0v9,-74,-44,-139,-118,-139v-49,0,-119,31,-133,139"},"f":{"d":"187,-591v57,-98,228,-106,296,-17r-33,66v-9,1,-6,-13,-10,-20v-19,-29,-56,-52,-100,-52v-38,0,-73,16,-92,50v-22,42,-16,82,-17,134r150,0r0,57r-150,0r0,373r-69,0r0,-373r-99,0r0,-57r99,0v1,-65,-5,-109,25,-161"},"g":{"d":"126,-314v0,55,45,100,101,100v56,0,100,-45,100,-100v0,-55,-44,-101,-100,-101v-56,0,-101,46,-101,101xm231,-472v42,0,80,16,108,44v35,-30,81,-45,127,-41r9,59v-41,-7,-74,2,-106,20v77,120,-52,277,-200,223v-4,4,-32,28,-32,52v0,14,10,25,27,30v58,14,161,-8,220,18v48,21,71,59,71,99v0,61,-55,140,-210,140v-160,0,-207,-58,-207,-108v0,-36,26,-70,75,-101v-29,-15,-37,-42,-37,-61v0,-29,19,-60,52,-88v-42,-27,-68,-74,-68,-124v0,-89,80,-162,171,-162xm161,-24v-26,14,-57,38,-57,71v0,16,8,41,45,56v35,14,74,15,95,15v31,0,69,-2,102,-20v31,-17,43,-41,43,-61v0,-20,-12,-48,-54,-53v-44,-6,-135,-1,-174,-8"},"h":{"d":"153,-665v3,11,-10,14,-10,24r0,265v34,-51,90,-92,152,-92v52,0,99,30,122,81v16,37,16,74,16,110r0,277r-71,0r0,-275v0,-32,1,-71,-24,-101v-16,-20,-39,-29,-62,-29v-48,0,-93,40,-110,63v-19,25,-23,48,-23,79r0,263r-73,0r0,-665r83,0"},"i":{"d":"106,-457r183,0r0,399r107,0r0,58r-296,0r0,-58r117,0r0,-341r-111,0r0,-58xm255,-656v29,0,51,23,51,51v0,28,-22,52,-51,52v-29,0,-52,-24,-52,-52v0,-28,23,-51,52,-51"},"j":{"d":"126,-457r243,0r0,425v0,39,-1,77,-21,115v-53,110,-228,121,-300,27r47,-62v6,5,5,12,9,19v4,6,33,45,88,45v39,0,75,-20,92,-57v11,-24,12,-49,12,-73r0,-380r-170,0r0,-59xm333,-656v29,0,52,23,52,51v0,28,-23,52,-52,52v-29,0,-52,-24,-52,-52v0,-28,23,-51,52,-51"},"k":{"d":"148,-665v2,12,-9,15,-9,26r0,392r229,-212v26,6,50,5,79,5r-192,181r224,274r-7,0v-48,0,-86,3,-86,3r-187,-233r-60,56r0,174r-73,0r0,-666r82,0"},"l":{"d":"85,-665r202,0r0,607r134,0r0,58r-342,0r0,-58r135,0r0,-549r-129,0r0,-58"},"m":{"d":"38,0r0,-457r66,0r0,45v21,-32,56,-56,93,-56v41,0,74,29,81,67v27,-65,127,-96,174,-30v21,30,18,69,18,107r0,325r-68,0r0,-325v0,-21,2,-47,-6,-66v-7,-17,-21,-25,-36,-25v-28,0,-45,28,-53,41v-17,28,-20,48,-20,72r0,302r-67,0r0,-318v0,-19,2,-41,-4,-60v-8,-25,-27,-35,-43,-35v-18,0,-38,12,-55,43v-13,24,-14,43,-14,65r0,305r-66,0"},"n":{"d":"68,0r0,-457r74,0r0,81v34,-51,89,-92,151,-92v52,0,99,30,122,81v16,37,17,74,17,110r0,277r-71,0r0,-275v0,-32,0,-71,-25,-101v-16,-20,-39,-29,-62,-29v-48,0,-93,40,-110,63v-19,25,-22,48,-22,79r0,263r-74,0"},"o":{"d":"460,-226v0,151,-97,238,-205,238v-115,0,-215,-98,-215,-237v0,-141,101,-242,217,-242v104,0,203,83,203,241xm388,-223v1,-246,-271,-238,-272,-8v0,113,66,181,139,181v67,0,133,-58,133,-173"},"p":{"d":"60,-457r73,0r0,70v31,-50,85,-80,144,-80v90,0,186,72,186,233v0,168,-99,246,-192,246v-55,0,-107,-27,-137,-72r0,227r-74,0r0,-624xm251,-406v-46,0,-89,26,-106,67v-10,24,-12,51,-12,90v0,66,0,103,13,134v18,42,61,63,104,63v43,0,138,-23,138,-167v0,-166,-97,-187,-137,-187"},"q":{"d":"374,-390r0,-67r68,0r0,624r-72,0r0,-240v-29,51,-82,83,-140,83v-101,0,-188,-95,-188,-243v0,-155,99,-236,199,-236v101,0,133,79,133,79xm243,-410v-61,0,-128,48,-128,167v0,129,66,190,131,190v48,0,94,-33,112,-87v15,-45,12,-158,-1,-192v-21,-56,-73,-78,-114,-78"},"r":{"d":"425,-349v-22,-29,-38,-55,-93,-57v-32,0,-86,11,-128,77v-31,49,-32,79,-32,107r0,223r-73,0r0,-458r75,0r-2,88v30,-65,97,-99,164,-99v51,0,93,21,122,50"},"s":{"d":"432,-396r-42,63v-6,0,-3,-13,-7,-18v-17,-22,-62,-62,-127,-62v-87,0,-140,74,-51,117v43,21,116,31,168,60v54,30,67,72,67,104v0,69,-65,142,-190,142v-69,0,-139,-22,-193,-72r41,-72v9,7,1,13,8,20v14,16,65,64,143,64v65,0,117,-29,117,-72v0,-17,-8,-41,-46,-59v-34,-16,-83,-27,-122,-41v-25,-9,-112,-38,-112,-118v0,-68,70,-128,176,-128v68,0,128,25,170,72"},"t":{"d":"188,-579r79,-13v4,10,-4,16,-6,27v-5,25,-12,108,-12,108r150,0r0,59r-150,0v-9,66,-12,219,-6,267v7,55,43,73,77,73v28,0,63,-12,102,-41r22,57v-39,28,-92,51,-146,51v-47,0,-82,-18,-104,-49v-27,-37,-27,-83,-27,-124v0,-78,4,-156,10,-234r-107,0r1,-59r109,0"},"u":{"d":"239,-47v73,-2,123,-71,123,-158r0,-252r73,0r0,416v0,13,1,27,5,41r-76,0v-4,-23,-1,-46,-1,-70v-30,50,-84,81,-141,81v-59,0,-115,-33,-142,-93v-18,-40,-18,-80,-18,-120r1,-255r72,0r0,255v0,31,1,67,17,99v18,36,51,56,87,56"},"v":{"d":"40,-457r86,0v2,11,-6,15,-2,25r132,334v47,-115,110,-227,136,-359r65,0v-15,70,-42,136,-69,200r-111,260r-56,0"},"w":{"d":"16,-457r73,0v5,14,-6,24,-3,38r67,329r78,-324r44,0r97,323v39,-260,44,-311,42,-366r67,0v-20,153,-45,307,-76,458r-68,0r-84,-296r-80,296r-65,0"},"x":{"d":"362,-457r74,0r-148,222r168,235r-82,0r-126,-178r-119,178r-82,0r161,-232r-158,-225r79,0r119,169"},"y":{"d":"46,-457r89,0v0,12,-6,19,-2,30r134,336v40,-121,92,-235,121,-366r75,0v-13,45,-29,88,-45,132r-143,377v-10,26,-19,50,-39,72v-55,61,-155,66,-214,11r38,-64v6,5,5,11,8,16v3,5,19,28,53,28v21,0,45,-10,64,-30v23,-25,32,-56,46,-87"},"z":{"d":"71,-457r355,0r0,49r-278,347r271,0v14,0,19,-8,31,-6r0,68r-400,0r0,-49r283,-346r-262,0r0,-63"},"{":{"d":"53,-284v36,-1,57,8,86,-22v41,-43,24,-94,24,-157v0,-38,4,-95,49,-134v58,-51,121,-38,196,-40r0,57v-52,2,-103,-8,-135,13v-38,24,-40,73,-40,93v1,57,10,101,-13,150v-15,30,-41,55,-72,68v38,13,85,50,85,155v0,31,-3,58,-3,84v0,34,5,78,41,103v34,24,82,15,136,17r0,56v-77,-2,-141,9,-192,-30v-53,-40,-56,-109,-56,-145v1,-74,17,-156,-22,-192v-28,-26,-50,-19,-84,-20r0,-56"},"|":{"d":"217,-652r67,0r0,803r-67,0r0,-803"},"}":{"d":"352,-256v-52,-19,-90,-81,-87,-148v0,-24,3,-46,3,-70v0,-20,-2,-69,-40,-93v-32,-21,-83,-11,-136,-13r0,-57v76,1,137,-11,196,40v45,39,50,96,50,134v0,63,-18,114,23,157v28,30,51,21,87,22r0,56v-35,1,-55,-6,-84,20v-39,35,-24,119,-23,192v0,36,-2,105,-55,145v-51,39,-115,28,-193,30r0,-56v53,-2,104,8,137,-17v58,-44,38,-107,38,-187v0,-105,46,-142,84,-155"},"~":{"d":"91,-342r-50,-33v30,-50,81,-89,138,-89v83,0,109,75,166,75v33,0,56,-26,85,-65r46,38v-26,39,-76,92,-139,92v-81,0,-102,-80,-163,-80v-28,0,-58,21,-83,62"},"\u00a0":{},"\u00a1":{"d":"180,-609v0,-33,26,-59,59,-59v33,0,60,26,60,59v0,33,-27,59,-60,59v-33,0,-59,-26,-59,-59xm289,-64v0,43,-20,75,-51,75v-31,0,-51,-29,-51,-83v0,-38,7,-76,9,-114r18,-277r50,0r15,277v3,66,10,90,10,122"},"\u00a2":{"d":"285,-624r67,7v0,14,-8,15,-9,28r-10,82v54,11,94,40,118,77r-44,57v-10,-10,1,-16,-8,-26v-13,-15,-37,-37,-74,-48r-46,350v48,0,96,-20,131,-56r36,49v-46,49,-105,73,-176,71r-15,112r-57,-7r14,-113v-98,-27,-164,-117,-164,-232v0,-134,89,-233,223,-239xm220,-108r43,-346v-82,5,-144,67,-144,172v0,87,41,150,101,174"},"\u00a3":{"d":"418,-572r-44,55v-8,-6,-8,-14,-14,-20v-4,-5,-32,-29,-74,-29v-54,0,-107,40,-107,123v0,21,3,43,8,65r100,0r0,57r-86,0v22,79,18,170,-23,231v78,-14,129,39,192,39v28,0,54,-11,74,-28r26,52v-23,18,-60,42,-104,42v-64,0,-105,-45,-178,-45v-20,0,-59,4,-123,38r-26,-57v47,-21,58,-26,74,-51v40,-59,42,-145,20,-221r-66,0r0,-57r52,0v-4,-21,-7,-42,-7,-64v0,-112,83,-181,176,-181v48,0,94,18,130,51"},"\u20ac":{"d":"464,-574r-25,68v-7,-6,-3,-13,-8,-20v-1,-1,-39,-45,-106,-45v-60,0,-132,35,-161,137v-2,5,-3,12,-5,20r247,0r-22,58r-234,0v-2,22,-3,53,-2,80r206,0r-23,58r-177,0v7,41,21,74,41,102v60,81,166,88,239,26r29,50v-38,33,-88,51,-140,51v-81,0,-206,-44,-232,-229r-58,0r13,-58r40,0v-1,-27,0,-54,2,-80r-55,0r13,-58r51,0v7,-35,19,-69,36,-98v51,-89,134,-116,196,-116v53,0,100,19,135,54"},"\u00a5":{"d":"36,-624r78,0r145,261r133,-260r74,0r-174,328r0,21r134,0r0,57r-134,0r0,63r134,0r0,56r-134,0r0,98r-68,0r0,-98r-140,0r0,-56r140,0r0,-63r-140,0r0,-57r140,0r0,-21"},"\u00a7":{"d":"413,-583r-57,50v-7,-6,-4,-14,-7,-21v-8,-23,-39,-59,-92,-59v-53,0,-90,35,-90,77v0,20,9,52,53,75v29,15,66,23,106,42v70,33,92,78,92,114v0,42,-30,78,-74,96v44,30,64,73,64,116v0,78,-69,147,-170,147v-67,0,-131,-30,-173,-85r52,-61v8,3,7,11,9,17v3,8,37,63,112,63v102,-1,135,-102,53,-150v-41,-25,-98,-29,-148,-57v-95,-53,-77,-165,18,-198v-48,-30,-67,-73,-67,-113v0,-76,69,-142,163,-142v66,0,125,35,156,89xm197,-399v-27,9,-45,34,-45,63v0,22,12,53,54,74v30,15,65,19,101,34v22,-11,36,-34,36,-60v0,-23,-12,-56,-58,-79v-26,-13,-57,-20,-88,-32"},"\u00a9":{"d":"262,-424v63,0,112,40,125,93r-52,19v-6,-7,-2,-13,-4,-20v-2,-7,-18,-42,-67,-42v-47,0,-93,30,-93,92v0,60,41,108,94,108v31,0,60,-17,75,-45r44,29v-28,42,-74,68,-123,68v-81,0,-146,-71,-146,-154v0,-85,66,-148,147,-148xm256,-19v-132,0,-242,-113,-242,-255v0,-143,110,-256,242,-256v132,0,242,112,242,255v0,143,-110,256,-242,256xm59,-274v0,119,90,212,198,212v107,0,198,-93,198,-213v0,-120,-91,-213,-198,-213v-108,0,-198,94,-198,214"},"\u00aa":{"d":"325,-476v4,-55,-18,-94,-74,-93v-35,0,-72,13,-94,44r-34,-41v36,-41,87,-56,134,-56v79,0,132,48,132,137r0,218r-63,0r0,-33v-30,28,-67,43,-106,43v-120,0,-163,-144,-59,-197v50,-26,106,-22,164,-22xm328,-424v-34,1,-69,-2,-102,3v-44,8,-60,35,-60,57v0,28,24,53,63,53v31,0,59,-15,77,-32v26,-25,22,-46,22,-81xm76,-206r349,0r0,54r-349,0r0,-54"},"\u00ab":{"d":"249,-253r151,-147r39,41r-121,118r128,140r-40,40r-157,-169r0,-23xm67,-253r152,-147r39,41r-121,118r128,140r-40,40r-158,-169r0,-23"},"\u00ac":{"d":"91,-347r323,0r0,190r-64,0r0,-127r-259,0r0,-63"},"\u00ad":{"d":"71,-348r360,0r0,67r-360,0r0,-67"},"\u00ae":{"d":"256,-19v-132,0,-242,-113,-242,-255v0,-143,110,-256,242,-256v132,0,242,112,242,255v0,143,-110,256,-242,256xm59,-274v0,119,90,212,198,212v107,0,198,-93,198,-213v0,-120,-91,-213,-198,-213v-108,0,-198,94,-198,214xm155,-133r0,-292v59,3,115,-8,163,10v73,27,66,133,-6,152r64,125r-47,7r-62,-125r-66,0r0,123r-46,0xm201,-384r0,88v51,1,123,8,123,-44v0,-13,-7,-26,-22,-35v-30,-15,-63,-7,-101,-9"},"\u00af":{"d":"123,-621r254,0r0,56r-254,0r0,-56"},"\u00b0":{"d":"391,-504v0,74,-60,134,-135,134v-75,0,-135,-60,-135,-134v0,-74,60,-135,135,-135v75,0,135,61,135,135xm257,-586v-41,0,-75,35,-75,80v0,45,34,81,75,81v41,0,74,-36,74,-81v0,-45,-33,-80,-74,-80"},"\u00b1":{"d":"46,-80r411,0r0,63r-411,0r0,-63xm222,-575r63,0r0,171r171,0r0,61r-171,0r0,188r-63,0r0,-188r-177,0r0,-61r177,0r0,-171"},"\u00b2":{"d":"256,-586v-48,0,-86,25,-98,63r-47,-31v30,-52,86,-83,147,-83v80,0,134,51,134,112v0,47,-33,80,-47,93v-40,37,-95,63,-151,125r182,0v11,1,12,-12,24,-9r0,63r-279,0r0,-44v56,-77,129,-126,159,-150v29,-24,51,-48,51,-78v0,-32,-27,-61,-75,-61"},"\u00b3":{"d":"258,-638v75,0,131,50,131,108v0,37,-24,67,-57,78v42,7,74,44,74,86v0,65,-71,115,-151,115v-55,0,-107,-24,-143,-65r47,-52v9,9,5,19,14,28v5,5,36,33,83,33v49,0,88,-29,88,-65v0,-18,-11,-55,-88,-55v-10,0,-20,1,-30,2r0,-51v7,1,13,1,20,1v66,0,83,-28,83,-51v0,-30,-29,-59,-74,-59v-34,0,-70,16,-94,46r-36,-37v34,-40,83,-62,133,-62"},"\u00b5":{"d":"372,-116v-4,29,11,69,40,69v34,0,55,-49,55,-49r27,51v-19,29,-51,55,-88,55v-42,0,-76,-34,-82,-77v-23,48,-71,78,-123,78v-49,0,-93,-27,-114,-71v0,76,0,152,-1,227r-62,0v1,-116,20,-242,20,-369r0,-255r66,0r0,271v0,30,0,59,14,87v38,80,138,70,171,-9v11,-26,13,-53,13,-84r0,-265r64,0r0,341"},"\u00b6":{"d":"436,-665r0,733r-58,0r0,-676r-76,0r0,676r-59,0r0,-390v-101,-7,-179,-84,-179,-174v0,-61,35,-120,102,-148v84,-35,169,-17,270,-21"},"\u00b7":{"d":"298,-331v0,31,-26,57,-59,57v-33,0,-60,-25,-60,-57v0,-31,27,-57,60,-57v33,0,59,26,59,57"},"\u00b9":{"d":"298,-633r0,326r93,0r0,54r-255,0r0,-54r100,0r0,-246r-96,24r-17,-31r132,-73r43,0"},"\u00ba":{"d":"252,-622v72,0,145,58,145,178v0,129,-78,188,-151,188v-79,0,-150,-67,-150,-176v0,-115,73,-190,156,-190xm156,-437v0,84,47,123,91,123v43,0,90,-37,90,-123v0,-86,-44,-129,-90,-129v-46,0,-91,43,-91,129xm76,-206r349,0r0,54r-349,0r0,-54"},"\u00bb":{"d":"446,-253r0,23r-158,169r-39,-40r127,-140r-121,-118r39,-41xm265,-253r0,23r-158,169r-40,-40r128,-140r-121,-118r39,-41"},"\u0152":{"d":"253,-595r0,-29r231,0r0,62r-169,0r0,205r143,0r0,64r-143,0r0,231r167,0r0,62r-230,0r0,-31v-20,24,-50,38,-82,38v-49,0,-109,-33,-138,-127v-4,-12,-23,-75,-23,-192v0,-84,7,-156,34,-219v33,-77,88,-101,128,-101v31,0,61,14,82,37xm73,-324v0,28,0,133,28,201v22,55,55,69,78,69v35,0,63,-31,73,-75r0,-356v-11,-34,-36,-89,-81,-89v-29,0,-60,25,-78,79v-6,18,-20,65,-20,171"},"\u0153":{"d":"34,-383v47,-91,159,-112,221,-37v65,-70,182,-63,221,40v17,48,14,104,14,159r-228,0v1,63,3,94,15,118v35,73,126,75,182,18r35,43v-61,65,-171,73,-241,13v-73,61,-168,59,-219,-41v-25,-49,-28,-113,-28,-166v0,-46,3,-100,28,-147xm263,-278r168,0v0,-35,1,-66,-16,-96v-15,-25,-41,-37,-67,-37v-26,0,-59,13,-74,54v-2,6,-12,31,-11,79xm66,-246v0,34,3,83,15,123v17,54,52,73,82,73v25,0,50,-14,50,-39v0,-13,-13,-60,-13,-147v0,-74,9,-112,9,-126v0,-26,-22,-44,-48,-44v-28,0,-59,19,-77,58v-16,34,-18,74,-18,102"},"\u0178":{"d":"209,-738v0,28,-23,50,-51,50v-28,0,-50,-22,-50,-50v0,-28,22,-51,50,-51v28,0,51,23,51,51xm387,-738v0,28,-22,50,-50,50v-28,0,-50,-22,-50,-50v0,-28,22,-51,50,-51v28,0,50,23,50,51xm28,-624r80,0r153,303r138,-302r74,0r-177,377r0,246r-76,0r0,-246"},"\u00bf":{"d":"181,-608v0,-31,27,-57,60,-57v33,0,59,25,59,57v0,31,-26,57,-59,57v-33,0,-60,-26,-60,-57xm438,-91v-44,67,-118,104,-193,104v-113,0,-178,-83,-178,-176v0,-94,67,-132,99,-162v53,-49,43,-75,44,-143r65,0v-1,78,8,107,-47,170v-30,33,-82,74,-82,140v0,59,46,106,106,106v51,0,103,-34,135,-87"},"\u00c0":{"d":"181,-791r153,89r-23,42r-169,-61xm15,1r220,-635r8,0r240,634r-72,0r-69,-182r-198,0r-60,183r-69,0xm326,-236r-88,-238r-80,238r168,0"},"\u00c1":{"d":"308,-791r40,70r-169,61r-24,-42xm15,1r220,-635r8,0r240,634r-72,0r-69,-182r-198,0r-60,183r-69,0xm326,-236r-88,-238r-80,238r168,0"},"\u00c2":{"d":"102,-692r131,-99r22,0r123,97r-33,38r-103,-71r-112,69xm15,1r220,-635r8,0r240,634r-72,0r-69,-182r-198,0r-60,183r-69,0xm326,-236r-88,-238r-80,238r168,0"},"\u00c3":{"d":"199,-802v71,0,78,75,130,75v25,0,36,-24,58,-53r38,40v-35,43,-62,71,-99,71v-58,0,-85,-76,-129,-76v-26,0,-42,23,-66,62r-45,-32v37,-59,74,-87,113,-87xm15,1r220,-635r8,0r240,634r-72,0r-69,-182r-198,0r-60,183r-69,0xm326,-236r-88,-238r-80,238r168,0"},"\u00c4":{"d":"202,-738v0,28,-23,50,-51,50v-28,0,-50,-22,-50,-50v0,-28,22,-51,50,-51v28,0,51,23,51,51xm380,-738v0,28,-22,50,-50,50v-28,0,-50,-22,-50,-50v0,-28,22,-51,50,-51v28,0,50,23,50,51xm15,1r220,-635r8,0r240,634r-72,0r-69,-182r-198,0r-60,183r-69,0xm326,-236r-88,-238r-80,238r168,0"},"\u00c5":{"d":"199,-707v0,26,19,45,42,45v22,0,41,-20,41,-46v0,-26,-18,-45,-41,-45v-22,0,-42,20,-42,46xm326,-236r-88,-238r-80,238r168,0xm248,-619r235,619r-72,0r-69,-182r-198,0r-60,183r-69,0r215,-620v-46,-5,-82,-43,-82,-88v0,-48,41,-88,92,-88v51,0,91,40,91,88v0,46,-36,84,-83,88"},"\u00c6":{"d":"200,-624r284,0r0,62r-173,0r1,205r146,0r0,64r-145,0r2,231r167,0r0,62r-230,0r0,-169r-130,0r-54,169r-64,0xm252,-562r-11,0r-105,335r116,0r0,-335"},"\u00c7":{"d":"327,109v-3,-27,-45,-25,-77,-24r10,-75v-100,-8,-219,-90,-219,-318v0,-249,140,-320,237,-320v83,0,157,48,191,123r-67,33v-10,-8,-1,-18,-7,-28v-27,-42,-71,-72,-120,-72v-88,0,-166,92,-166,258v0,168,80,264,172,264v49,0,98,-28,127,-76r52,34v-34,56,-92,93,-156,101r-5,38v21,1,38,1,56,9v19,9,29,28,29,47v0,36,-35,74,-108,74v-38,0,-82,-11,-119,-37r25,-42v31,25,69,36,99,36v39,0,46,-16,46,-25"},"\u00c8":{"d":"181,-791r153,89r-23,42r-169,-61xm59,-624r382,0r0,62r-316,0r0,205r261,0r0,64r-261,0r0,231r313,0r0,62r-379,0r0,-624"},"\u00c9":{"d":"325,-791r40,70r-169,61r-23,-42xm59,-624r382,0r0,62r-316,0r0,205r261,0r0,64r-261,0r0,231r313,0r0,62r-379,0r0,-624"},"\u00ca":{"d":"110,-692r132,-99r21,0r124,97r-33,38r-104,-71r-111,69xm59,-624r382,0r0,62r-316,0r0,205r261,0r0,64r-261,0r0,231r313,0r0,62r-379,0r0,-624"},"\u00cb":{"d":"209,-738v0,28,-23,50,-51,50v-28,0,-50,-22,-50,-50v0,-28,22,-51,50,-51v28,0,51,23,51,51xm387,-738v0,28,-22,50,-50,50v-28,0,-50,-22,-50,-50v0,-28,22,-51,50,-51v28,0,50,23,50,51xm59,-624r382,0r0,62r-316,0r0,205r261,0r0,64r-261,0r0,231r313,0r0,62r-379,0r0,-624"},"\u00cc":{"d":"181,-791r153,89r-23,42r-169,-61xm88,-623r309,0r0,59r-123,0r0,507r129,0r0,58r-322,0r0,-59r123,0r0,-506r-116,0r0,-59"},"\u00cd":{"d":"325,-791r40,70r-169,61r-23,-42xm88,-623r309,0r0,59r-123,0r0,507r129,0r0,58r-322,0r0,-59r123,0r0,-506r-116,0r0,-59"},"\u00ce":{"d":"101,-692r131,-99r22,0r123,97r-33,38r-103,-71r-112,69xm88,-623r309,0r0,59r-123,0r0,507r129,0r0,58r-322,0r0,-59r123,0r0,-506r-116,0r0,-59"},"\u00cf":{"d":"205,-738v0,28,-22,50,-50,50v-28,0,-51,-22,-51,-50v0,-28,23,-51,51,-51v28,0,50,23,50,51xm383,-738v0,28,-22,50,-50,50v-28,0,-50,-22,-50,-50v0,-28,22,-51,50,-51v28,0,50,23,50,51xm88,-623r309,0r0,59r-123,0r0,507r129,0r0,58r-322,0r0,-59r123,0r0,-506r-116,0r0,-59"},"\u00d0":{"d":"79,-623v110,5,209,-18,280,37v159,122,137,489,-40,568v-65,29,-153,16,-240,19r0,-302r-49,0r0,-58r49,0r0,-264xm143,-301r0,244v68,-2,112,8,164,-26v109,-70,121,-305,39,-421v-42,-59,-93,-60,-132,-60r-71,0r0,205r105,0r0,58r-105,0"},"\u00d1":{"d":"204,-802v71,0,78,75,130,75v25,0,36,-24,58,-53r37,40v-35,43,-62,71,-99,71v-58,0,-85,-76,-129,-76v-26,0,-42,23,-66,62r-44,-32v37,-59,74,-87,113,-87xm454,-624v1,13,-7,14,-7,27r0,598r-55,0r-275,-491r0,490r-67,0r0,-623r68,0r262,462r0,-463r74,0"},"\u00d2":{"d":"181,-791r153,89r-23,42r-169,-61xm471,-310v0,55,-4,132,-37,199v-41,83,-113,121,-180,121v-95,0,-225,-78,-225,-323v0,-245,132,-317,225,-317v68,0,138,37,179,117v34,67,38,145,38,203xm251,-564v-65,0,-153,56,-153,242v0,198,86,263,156,263v42,0,90,-23,119,-84v26,-54,28,-117,28,-158v0,-53,-3,-113,-24,-165v-29,-72,-82,-98,-126,-98"},"\u00d3":{"d":"325,-791r40,70r-169,61r-23,-42xm471,-310v0,55,-4,132,-37,199v-41,83,-113,121,-180,121v-95,0,-225,-78,-225,-323v0,-245,132,-317,225,-317v68,0,138,37,179,117v34,67,38,145,38,203xm251,-564v-65,0,-153,56,-153,242v0,198,86,263,156,263v42,0,90,-23,119,-84v26,-54,28,-117,28,-158v0,-53,-3,-113,-24,-165v-29,-72,-82,-98,-126,-98"},"\u00d4":{"d":"113,-692r131,-99r22,0r123,97r-33,38r-103,-71r-111,69xm471,-310v0,55,-4,132,-37,199v-41,83,-113,121,-180,121v-95,0,-225,-78,-225,-323v0,-245,132,-317,225,-317v68,0,138,37,179,117v34,67,38,145,38,203xm251,-564v-65,0,-153,56,-153,242v0,198,86,263,156,263v42,0,90,-23,119,-84v26,-54,28,-117,28,-158v0,-53,-3,-113,-24,-165v-29,-72,-82,-98,-126,-98"},"\u00d5":{"d":"204,-802v71,0,78,75,130,75v25,0,36,-24,58,-53r37,40v-35,43,-62,71,-99,71v-58,0,-85,-76,-129,-76v-26,0,-42,23,-66,62r-44,-32v37,-59,74,-87,113,-87xm471,-310v0,55,-4,132,-37,199v-41,83,-113,121,-180,121v-95,0,-225,-78,-225,-323v0,-245,132,-317,225,-317v68,0,138,37,179,117v34,67,38,145,38,203xm251,-564v-65,0,-153,56,-153,242v0,198,86,263,156,263v42,0,90,-23,119,-84v26,-54,28,-117,28,-158v0,-53,-3,-113,-24,-165v-29,-72,-82,-98,-126,-98"},"\u00d6":{"d":"209,-738v0,28,-23,50,-51,50v-28,0,-50,-22,-50,-50v0,-28,22,-51,50,-51v28,0,51,23,51,51xm387,-738v0,28,-22,50,-50,50v-28,0,-50,-22,-50,-50v0,-28,22,-51,50,-51v28,0,50,23,50,51xm471,-310v0,55,-4,132,-37,199v-41,83,-113,121,-180,121v-95,0,-225,-78,-225,-323v0,-245,132,-317,225,-317v68,0,138,37,179,117v34,67,38,145,38,203xm251,-564v-65,0,-153,56,-153,242v0,198,86,263,156,263v42,0,90,-23,119,-84v26,-54,28,-117,28,-158v0,-53,-3,-113,-24,-165v-29,-72,-82,-98,-126,-98"},"\u00d7":{"d":"382,-503r48,44r-130,134r127,134r-46,46r-127,-133r-125,129r-44,-44r126,-131r-126,-133r47,-46r124,131"},"\u00d8":{"d":"251,-564v-65,0,-153,56,-153,242v0,78,13,136,34,177r204,-383v-27,-26,-57,-36,-85,-36xm413,-545v43,54,58,168,58,235v0,55,-4,132,-37,199v-41,83,-113,121,-180,121v-37,0,-78,-12,-116,-40r-50,93r-52,-27r59,-110v-38,-50,-66,-127,-66,-239v0,-245,132,-317,225,-317v40,0,80,13,115,40r46,-87r54,29xm374,-472r-203,380v26,24,56,33,83,33v42,0,90,-23,119,-84v26,-54,28,-117,28,-158v0,-54,-4,-120,-27,-171"},"\u00d9":{"d":"181,-791r153,89r-23,42r-169,-61xm129,-623v5,13,-10,20,-10,32r0,377v0,31,1,61,15,92v44,97,192,98,237,1v15,-32,16,-64,16,-96r0,-406r67,0r0,405v0,46,-1,89,-25,132v-69,130,-287,129,-355,0v-23,-43,-24,-85,-24,-129r0,-408r79,0"},"\u00da":{"d":"325,-791r40,70r-169,61r-23,-42xm129,-623v5,13,-10,20,-10,32r0,377v0,31,1,61,15,92v44,97,192,98,237,1v15,-32,16,-64,16,-96r0,-406r67,0r0,405v0,46,-1,89,-25,132v-69,130,-287,129,-355,0v-23,-43,-24,-85,-24,-129r0,-408r79,0"},"\u00db":{"d":"113,-692r131,-99r22,0r123,97r-33,38r-103,-71r-111,69xm129,-623v5,13,-10,20,-10,32r0,377v0,31,1,61,15,92v44,97,192,98,237,1v15,-32,16,-64,16,-96r0,-406r67,0r0,405v0,46,-1,89,-25,132v-69,130,-287,129,-355,0v-23,-43,-24,-85,-24,-129r0,-408r79,0"},"\u00dc":{"d":"217,-738v0,28,-22,50,-50,50v-28,0,-51,-22,-51,-50v0,-28,23,-51,51,-51v28,0,50,23,50,51xm395,-738v0,28,-22,50,-50,50v-28,0,-50,-22,-50,-50v0,-28,22,-51,50,-51v28,0,50,23,50,51xm129,-623v5,13,-10,20,-10,32r0,377v0,31,1,61,15,92v44,97,192,98,237,1v15,-32,16,-64,16,-96r0,-406r67,0r0,405v0,46,-1,89,-25,132v-69,130,-287,129,-355,0v-23,-43,-24,-85,-24,-129r0,-408r79,0"},"\u00dd":{"d":"325,-791r40,70r-169,61r-23,-42xm28,-624r80,0r153,303r138,-302r74,0r-177,377r0,246r-76,0r0,-246"},"\u00de":{"d":"137,-623v4,12,-8,18,-8,28r0,89v90,4,168,-13,237,21v118,58,120,249,2,307v-70,34,-149,16,-239,20r0,158r-70,0r0,-623r78,0xm129,-440r0,221r127,0v25,0,49,-1,73,-13v75,-37,72,-159,-4,-195v-25,-13,-50,-13,-76,-13r-120,0"},"\u00df":{"d":"243,-380v68,2,108,-53,109,-115v0,-66,-50,-116,-109,-116v-33,0,-67,16,-90,50v-28,41,-30,92,-30,136r0,425r-68,0r0,-423v0,-46,1,-92,21,-138v31,-70,95,-108,163,-108v100,0,181,81,181,176v0,57,-30,109,-79,134v75,23,123,95,123,178v0,109,-80,191,-183,191v-37,0,-73,-11,-104,-31r35,-56v77,60,188,-4,186,-104v-2,-83,-64,-148,-154,-142r-30,0r0,-57r29,0"},"\u00e0":{"d":"243,-699r88,147r-50,30r-101,-135xm366,-269v2,-81,-14,-138,-109,-139v-42,0,-94,12,-131,51r-35,-46v79,-88,264,-87,322,12v21,35,22,71,22,108r0,283r-68,0r0,-50v-50,41,-108,61,-164,61v-95,0,-154,-62,-154,-129v0,-51,33,-105,105,-131v63,-23,138,-20,212,-20xm369,-214v-55,1,-120,-4,-167,7v-57,14,-81,51,-81,84v0,41,35,79,96,79v60,0,104,-36,120,-54v39,-45,31,-65,32,-116"},"\u00e1":{"d":"292,-699r63,42r-101,135r-50,-30xm366,-269v2,-81,-14,-138,-109,-139v-42,0,-94,12,-131,51r-35,-46v79,-88,264,-87,322,12v21,35,22,71,22,108r0,283r-68,0r0,-50v-50,41,-108,61,-164,61v-95,0,-154,-62,-154,-129v0,-51,33,-105,105,-131v63,-23,138,-20,212,-20xm369,-214v-55,1,-120,-4,-167,7v-57,14,-81,51,-81,84v0,41,35,79,96,79v60,0,104,-36,120,-54v39,-45,31,-65,32,-116"},"\u00e2":{"d":"141,-545r111,-140r22,0r110,141r-47,35r-77,-103r-81,102xm366,-269v2,-81,-14,-138,-109,-139v-42,0,-94,12,-131,51r-35,-46v79,-88,264,-87,322,12v21,35,22,71,22,108r0,283r-68,0r0,-50v-50,41,-108,61,-164,61v-95,0,-154,-62,-154,-129v0,-51,33,-105,105,-131v63,-23,138,-20,212,-20xm369,-214v-55,1,-120,-4,-167,7v-57,14,-81,51,-81,84v0,41,35,79,96,79v60,0,104,-36,120,-54v39,-45,31,-65,32,-116"},"\u00e3":{"d":"213,-676v71,0,78,75,130,75v25,0,36,-24,58,-53r37,40v-35,43,-61,71,-98,71v-58,0,-86,-76,-130,-76v-26,0,-41,23,-65,62r-45,-32v37,-59,74,-87,113,-87xm366,-269v2,-81,-14,-138,-109,-139v-42,0,-94,12,-131,51r-35,-46v79,-88,264,-87,322,12v21,35,22,71,22,108r0,283r-68,0r0,-50v-50,41,-108,61,-164,61v-95,0,-154,-62,-154,-129v0,-51,33,-105,105,-131v63,-23,138,-20,212,-20xm369,-214v-55,1,-120,-4,-167,7v-57,14,-81,51,-81,84v0,41,35,79,96,79v60,0,104,-36,120,-54v39,-45,31,-65,32,-116"},"\u00e4":{"d":"226,-614v0,28,-22,50,-50,50v-28,0,-51,-22,-51,-50v0,-28,23,-51,51,-51v28,0,50,23,50,51xm404,-614v0,28,-22,50,-50,50v-28,0,-50,-22,-50,-50v0,-28,22,-51,50,-51v28,0,50,23,50,51xm366,-269v2,-81,-14,-138,-109,-139v-42,0,-94,12,-131,51r-35,-46v79,-88,264,-87,322,12v21,35,22,71,22,108r0,283r-68,0r0,-50v-50,41,-108,61,-164,61v-95,0,-154,-62,-154,-129v0,-51,33,-105,105,-131v63,-23,138,-20,212,-20xm369,-214v-55,1,-120,-4,-167,7v-57,14,-81,51,-81,84v0,41,35,79,96,79v60,0,104,-36,120,-54v39,-45,31,-65,32,-116"},"\u00e5":{"d":"348,-605v0,48,-41,88,-92,88v-51,0,-91,-40,-91,-88v0,-48,40,-88,91,-88v51,0,92,40,92,88xm216,-606v0,26,18,46,41,46v22,0,42,-20,42,-46v0,-26,-19,-46,-42,-46v-22,0,-41,20,-41,46xm366,-269v2,-81,-14,-138,-109,-139v-42,0,-94,12,-131,51r-35,-46v79,-88,264,-87,322,12v21,35,22,71,22,108r0,283r-68,0r0,-50v-50,41,-108,61,-164,61v-95,0,-154,-62,-154,-129v0,-51,33,-105,105,-131v63,-23,138,-20,212,-20xm369,-214v-55,1,-120,-4,-167,7v-57,14,-81,51,-81,84v0,41,35,79,96,79v60,0,104,-36,120,-54v39,-45,31,-65,32,-116"},"\u00e6":{"d":"221,-305v5,-59,-32,-107,-79,-106v-28,0,-58,16,-76,43r-35,-44v54,-74,185,-73,227,7v45,-77,156,-88,206,-4v33,56,25,111,26,179r-208,8r0,47v-6,72,44,130,104,128v29,0,56,-14,73,-37r35,42v-60,77,-190,67,-239,-16v-21,42,-65,69,-113,69v-72,0,-132,-60,-132,-135v0,-51,29,-108,92,-135v48,-21,76,-18,119,-20r0,-26xm221,-219v-37,2,-66,-1,-99,15v-33,17,-48,47,-48,76v0,44,34,78,75,78v27,0,55,-15,66,-46v11,-31,4,-79,6,-123xm362,-411v-49,0,-86,66,-80,115r0,17r150,-6v0,-31,2,-55,-9,-82v-12,-28,-36,-44,-61,-44"},"\u00e7":{"d":"327,109v-3,-27,-45,-25,-77,-24r10,-75v-118,-10,-204,-108,-204,-238v0,-137,96,-238,230,-238v73,0,135,32,171,85r-51,59v-8,-6,-3,-15,-7,-23v-3,-5,-40,-60,-118,-60v-84,0,-151,65,-151,169v0,107,68,182,157,182v46,0,90,-21,121,-56r42,49v-38,41,-90,66,-146,71r-5,37v21,1,38,1,56,9v19,9,29,28,29,47v0,36,-35,74,-108,74v-38,0,-82,-11,-119,-37r25,-42v31,25,69,36,99,36v39,0,46,-16,46,-25"},"\u00e8":{"d":"243,-699r88,147r-50,30r-101,-135xm259,-468v75,0,160,39,181,162v4,27,6,57,3,88r-325,0v5,137,95,170,156,170v45,0,88,-18,118,-51r40,39v-39,47,-99,70,-164,70v-124,0,-219,-81,-219,-233v0,-167,101,-245,210,-245xm121,-274r251,0v9,-74,-44,-139,-118,-139v-49,0,-119,31,-133,139"},"\u00e9":{"d":"292,-699r63,42r-101,135r-50,-30xm259,-468v75,0,160,39,181,162v4,27,6,57,3,88r-325,0v5,137,95,170,156,170v45,0,88,-18,118,-51r40,39v-39,47,-99,70,-164,70v-124,0,-219,-81,-219,-233v0,-167,101,-245,210,-245xm121,-274r251,0v9,-74,-44,-139,-118,-139v-49,0,-119,31,-133,139"},"\u00ea":{"d":"134,-545r111,-140r22,0r110,141r-46,35r-78,-103r-81,102xm259,-468v75,0,160,39,181,162v4,27,6,57,3,88r-325,0v5,137,95,170,156,170v45,0,88,-18,118,-51r40,39v-39,47,-99,70,-164,70v-124,0,-219,-81,-219,-233v0,-167,101,-245,210,-245xm121,-274r251,0v9,-74,-44,-139,-118,-139v-49,0,-119,31,-133,139"},"\u00eb":{"d":"215,-614v0,28,-23,50,-51,50v-28,0,-50,-22,-50,-50v0,-28,22,-51,50,-51v28,0,51,23,51,51xm393,-614v0,28,-22,50,-50,50v-28,0,-50,-22,-50,-50v0,-28,22,-51,50,-51v28,0,50,23,50,51xm259,-468v75,0,160,39,181,162v4,27,6,57,3,88r-325,0v5,137,95,170,156,170v45,0,88,-18,118,-51r40,39v-39,47,-99,70,-164,70v-124,0,-219,-81,-219,-233v0,-167,101,-245,210,-245xm121,-274r251,0v9,-74,-44,-139,-118,-139v-49,0,-119,31,-133,139"},"\u00ec":{"d":"192,-699r88,147r-50,30r-101,-135xm106,-457r183,0r0,399r107,0r0,58r-296,0r0,-58r117,0r0,-341r-111,0r0,-58"},"\u00ed":{"d":"283,-699r63,42r-101,135r-50,-30xm106,-457r183,0r0,399r107,0r0,58r-296,0r0,-58r117,0r0,-341r-111,0r0,-58"},"\u00ee":{"d":"113,-545r111,-140r22,0r110,141r-46,35r-78,-103r-81,102xm106,-457r183,0r0,399r107,0r0,58r-296,0r0,-58r117,0r0,-341r-111,0r0,-58"},"\u00ef":{"d":"203,-614v0,28,-23,50,-51,50v-28,0,-50,-22,-50,-50v0,-28,22,-51,50,-51v28,0,51,23,51,51xm381,-614v0,28,-22,50,-50,50v-28,0,-51,-22,-51,-50v0,-28,23,-51,51,-51v28,0,50,23,50,51xm106,-457r183,0r0,399r107,0r0,58r-296,0r0,-58r117,0r0,-341r-111,0r0,-58"},"\u00f0":{"d":"255,-406v-68,0,-138,56,-138,174v0,116,67,182,139,182v56,0,131,-43,131,-182v0,-139,-80,-174,-132,-174xm347,-570v61,69,113,171,113,317v0,54,-6,117,-38,171v-37,61,-100,94,-166,94v-116,0,-216,-98,-216,-235v0,-137,98,-244,209,-244v47,0,90,19,120,52v-20,-51,-50,-97,-86,-137r-128,36r-18,-48r104,-28v-31,-26,-65,-47,-102,-64r81,-16v26,14,56,35,87,62r108,-29r17,44"},"\u00f1":{"d":"199,-676v71,0,78,75,130,75v25,0,36,-24,58,-53r37,40v-35,43,-62,71,-99,71v-58,0,-85,-76,-129,-76v-26,0,-42,23,-66,62r-45,-32v37,-59,75,-87,114,-87xm68,0r0,-457r74,0r0,81v34,-51,89,-92,151,-92v52,0,99,30,122,81v16,37,17,74,17,110r0,277r-71,0r0,-275v0,-32,0,-71,-25,-101v-16,-20,-39,-29,-62,-29v-48,0,-93,40,-110,63v-19,25,-22,48,-22,79r0,263r-74,0"},"\u00f2":{"d":"243,-699r88,147r-50,30r-101,-135xm460,-226v0,151,-97,238,-205,238v-115,0,-215,-98,-215,-237v0,-141,101,-242,217,-242v104,0,203,83,203,241xm388,-223v1,-246,-271,-238,-272,-8v0,113,66,181,139,181v67,0,133,-58,133,-173"},"\u00f3":{"d":"292,-699r63,42r-101,135r-50,-30xm460,-226v0,151,-97,238,-205,238v-115,0,-215,-98,-215,-237v0,-141,101,-242,217,-242v104,0,203,83,203,241xm388,-223v1,-246,-271,-238,-272,-8v0,113,66,181,139,181v67,0,133,-58,133,-173"},"\u00f4":{"d":"134,-545r111,-140r22,0r110,141r-46,35r-78,-103r-81,102xm460,-226v0,151,-97,238,-205,238v-115,0,-215,-98,-215,-237v0,-141,101,-242,217,-242v104,0,203,83,203,241xm388,-223v1,-246,-271,-238,-272,-8v0,113,66,181,139,181v67,0,133,-58,133,-173"},"\u00f5":{"d":"204,-676v71,0,78,75,130,75v25,0,36,-24,58,-53r37,40v-35,43,-62,71,-99,71v-58,0,-85,-76,-129,-76v-26,0,-42,23,-66,62r-44,-32v37,-59,74,-87,113,-87xm460,-226v0,151,-97,238,-205,238v-115,0,-215,-98,-215,-237v0,-141,101,-242,217,-242v104,0,203,83,203,241xm388,-223v1,-246,-271,-238,-272,-8v0,113,66,181,139,181v67,0,133,-58,133,-173"},"\u00f6":{"d":"213,-614v0,28,-22,50,-50,50v-28,0,-51,-22,-51,-50v0,-28,23,-51,51,-51v28,0,50,23,50,51xm391,-614v0,28,-22,50,-50,50v-28,0,-50,-22,-50,-50v0,-28,22,-51,50,-51v28,0,50,23,50,51xm460,-226v0,151,-97,238,-205,238v-115,0,-215,-98,-215,-237v0,-141,101,-242,217,-242v104,0,203,83,203,241xm388,-223v1,-246,-271,-238,-272,-8v0,113,66,181,139,181v67,0,133,-58,133,-173"},"\u00f7":{"d":"71,-348r360,0r0,67r-360,0r0,-67xm300,-467v0,25,-20,45,-45,45v-25,0,-44,-20,-44,-45v0,-25,19,-45,44,-45v25,0,45,20,45,45xm300,-159v0,25,-20,45,-45,45v-25,0,-45,-20,-45,-45v0,-25,20,-45,45,-45v25,0,45,20,45,45"},"\u00f8":{"d":"252,-406v-70,0,-136,63,-136,175v0,50,13,91,34,121r154,-283v-17,-8,-34,-13,-52,-13xm460,-226v0,151,-97,238,-205,238v-33,0,-65,-8,-93,-22r-40,74r-52,-27r44,-81v-45,-42,-74,-106,-74,-181v2,-169,142,-285,295,-225r37,-69r53,29r-39,73v44,40,74,104,74,191xm351,-354r-157,287v19,11,39,17,61,17v67,0,133,-58,133,-173v0,-57,-15,-101,-37,-131"},"\u00f9":{"d":"243,-699r88,147r-50,30r-101,-135xm239,-47v73,-2,123,-71,123,-158r0,-252r73,0r0,416v0,13,1,27,5,41r-76,0v-4,-23,-1,-46,-1,-70v-30,50,-84,81,-141,81v-59,0,-115,-33,-142,-93v-18,-40,-18,-80,-18,-120r1,-255r72,0r0,255v0,31,1,67,17,99v18,36,51,56,87,56"},"\u00fa":{"d":"292,-699r63,42r-101,135r-50,-30xm239,-47v73,-2,123,-71,123,-158r0,-252r73,0r0,416v0,13,1,27,5,41r-76,0v-4,-23,-1,-46,-1,-70v-30,50,-84,81,-141,81v-59,0,-115,-33,-142,-93v-18,-40,-18,-80,-18,-120r1,-255r72,0r0,255v0,31,1,67,17,99v18,36,51,56,87,56"},"\u00fb":{"d":"134,-545r111,-140r22,0r110,141r-46,35r-78,-103r-81,102xm239,-47v73,-2,123,-71,123,-158r0,-252r73,0r0,416v0,13,1,27,5,41r-76,0v-4,-23,-1,-46,-1,-70v-30,50,-84,81,-141,81v-59,0,-115,-33,-142,-93v-18,-40,-18,-80,-18,-120r1,-255r72,0r0,255v0,31,1,67,17,99v18,36,51,56,87,56"},"\u00fc":{"d":"213,-614v0,28,-22,50,-50,50v-28,0,-51,-22,-51,-50v0,-28,23,-51,51,-51v28,0,50,23,50,51xm391,-614v0,28,-22,50,-50,50v-28,0,-50,-22,-50,-50v0,-28,22,-51,50,-51v28,0,50,23,50,51xm239,-47v73,-2,123,-71,123,-158r0,-252r73,0r0,416v0,13,1,27,5,41r-76,0v-4,-23,-1,-46,-1,-70v-30,50,-84,81,-141,81v-59,0,-115,-33,-142,-93v-18,-40,-18,-80,-18,-120r1,-255r72,0r0,255v0,31,1,67,17,99v18,36,51,56,87,56"},"\u00fd":{"d":"292,-699r63,42r-101,135r-50,-30xm46,-457r89,0v0,12,-6,19,-2,30r134,336v40,-121,92,-235,121,-366r75,0v-13,45,-29,88,-45,132r-143,377v-10,26,-19,50,-39,72v-55,61,-155,66,-214,11r38,-64v6,5,5,11,8,16v3,5,19,28,53,28v21,0,45,-10,64,-30v23,-25,32,-56,46,-87"},"\u00fe":{"d":"60,-665r80,0v0,14,-7,17,-7,33r0,245v31,-50,85,-80,144,-80v90,0,186,72,186,233v0,168,-99,246,-192,246v-55,0,-107,-27,-137,-72r0,227r-74,0r0,-832xm251,-406v-46,0,-89,26,-106,67v-10,24,-12,51,-12,90v0,66,0,103,13,134v18,42,61,63,104,63v43,0,138,-23,138,-167v0,-166,-97,-187,-137,-187"},"\u00ff":{"d":"213,-614v0,28,-22,50,-50,50v-28,0,-51,-22,-51,-50v0,-28,23,-51,51,-51v28,0,50,23,50,51xm391,-614v0,28,-22,50,-50,50v-28,0,-50,-22,-50,-50v0,-28,22,-51,50,-51v28,0,50,23,50,51xm46,-457r89,0v0,12,-6,19,-2,30r134,336v40,-121,92,-235,121,-366r75,0v-13,45,-29,88,-45,132r-143,377v-10,26,-19,50,-39,72v-55,61,-155,66,-214,11r38,-64v6,5,5,11,8,16v3,5,19,28,53,28v21,0,45,-10,64,-30v23,-25,32,-56,46,-87"},"\u2019":{"d":"230,-501v0,-47,-51,-27,-51,-80v0,-30,24,-57,57,-57v36,0,70,32,70,83v0,52,-37,117,-107,188r-34,-30v24,-22,40,-46,50,-62v5,-8,15,-25,15,-42"},"\u2018":{"d":"258,-504v0,47,51,27,51,80v0,30,-24,57,-57,57v-36,0,-70,-32,-70,-83v0,-52,36,-117,106,-188r35,31v-24,22,-40,46,-50,62v-5,8,-15,24,-15,41"},"\u00b4":{"d":"292,-699r63,42r-101,135r-50,-30"},"\u02c6":{"d":"134,-545r111,-140r22,0r110,141r-46,35r-78,-103r-81,102"},"\u02dc":{"d":"204,-676v71,0,78,75,130,75v25,0,36,-24,58,-53r37,40v-35,43,-62,71,-99,71v-58,0,-85,-76,-129,-76v-26,0,-42,23,-66,62r-44,-32v37,-59,74,-87,113,-87"},"\u00a8":{"d":"213,-614v0,28,-22,50,-50,50v-28,0,-51,-22,-51,-50v0,-28,23,-51,51,-51v28,0,50,23,50,51xm391,-614v0,28,-22,50,-50,50v-28,0,-50,-22,-50,-50v0,-28,22,-51,50,-51v28,0,50,23,50,51"},"\u00b8":{"d":"327,109v-3,-27,-45,-25,-77,-24r11,-85r44,0r-6,47v21,1,38,1,56,9v19,9,29,28,29,47v0,36,-35,74,-108,74v-38,0,-82,-11,-119,-37r25,-42v31,25,69,36,99,36v39,0,46,-16,46,-25"},"\u2039":{"d":"145,-253r152,-147r39,41r-121,118r128,140r-40,40r-158,-169r0,-23"},"\u203a":{"d":"343,-253r0,23r-158,169r-40,-40r128,-140r-121,-118r39,-41"},"\u00a4":{"d":"68,-492r36,-35r56,56v49,-38,130,-39,180,-1r56,-55r36,35r-56,55v39,50,40,133,1,183r55,55r-36,35r-55,-55v-50,39,-132,38,-182,-1r-55,56r-36,-35r56,-57v-38,-50,-37,-130,1,-179xm251,-446v-55,0,-101,46,-101,101v0,55,46,100,101,100v55,0,100,-45,100,-100v0,-55,-45,-101,-100,-101"},"\u00a6":{"d":"217,-652r67,0r0,357r-67,0r0,-357xm284,151r-67,0r0,-347r67,0r0,347"},"\u00bc":{"d":"76,16r313,-681r48,27r-314,680xm396,-242r31,0r0,197r50,0r0,37r-50,0r0,78r-46,0r0,-78r-145,0r0,-29xm382,-164r-94,119r94,0r0,-119xm146,-677r0,260r74,0r0,43r-204,0r0,-43r80,0r0,-197r-77,19r-13,-24r106,-58r34,0"},"\u00bd":{"d":"76,16r313,-681r48,27r-314,680xm379,-194v-38,0,-69,21,-79,51r-37,-25v24,-42,68,-67,117,-67v64,0,107,42,107,90v0,38,-26,64,-37,74v-32,29,-76,50,-121,100r146,0v8,1,9,-9,19,-7r0,51r-224,0r0,-35v45,-62,104,-101,128,-120v23,-19,41,-39,41,-63v0,-25,-22,-49,-60,-49xm146,-677r0,260r74,0r0,43r-204,0r0,-43r80,0r0,-197r-77,19r-13,-24r106,-58r34,0"},"\u00be":{"d":"81,16r313,-681r48,27r-314,680xm128,-684v60,0,104,40,104,86v0,29,-18,55,-45,63v34,6,59,34,59,68v0,52,-57,93,-121,93v-44,0,-85,-19,-114,-52r38,-42v7,7,4,16,11,23v4,4,28,26,66,26v39,0,71,-24,71,-52v0,-15,-10,-44,-71,-44v-8,0,-16,0,-24,1r0,-40v5,1,11,1,16,1v52,0,67,-23,67,-41v0,-24,-24,-48,-60,-48v-27,0,-55,14,-74,38r-29,-30v27,-32,66,-50,106,-50xm396,-242r31,0r0,197r50,0r0,37r-50,0r0,78r-46,0r0,-78r-145,0r0,-29xm382,-164r-94,119r94,0r0,-119"},"\u201a":{"d":"230,34v0,-47,-51,-27,-51,-80v0,-30,24,-57,57,-57v36,0,70,32,70,83v0,52,-37,117,-107,188r-34,-30v24,-22,40,-46,50,-62v5,-8,15,-25,15,-42"},"\u201c":{"d":"361,-504v0,47,52,27,52,80v0,30,-25,57,-58,57v-36,0,-69,-32,-69,-83v0,-52,36,-117,106,-188r34,31v-24,22,-40,46,-50,62v-5,8,-15,24,-15,41xm154,-504v0,47,52,27,52,80v0,30,-25,57,-58,57v-36,0,-69,-32,-69,-83v0,-52,36,-117,106,-188r34,31v-24,22,-40,46,-50,62v-5,8,-15,24,-15,41"},"\u201d":{"d":"126,-501v0,-47,-51,-27,-51,-80v0,-30,25,-57,58,-57v36,0,69,32,69,83v0,52,-36,117,-106,188r-35,-30v24,-22,41,-46,51,-62v5,-8,14,-25,14,-42xm333,-501v0,-47,-51,-27,-51,-80v0,-30,25,-57,58,-57v36,0,69,32,69,83v0,52,-36,117,-106,188r-35,-30v24,-22,41,-46,51,-62v5,-8,14,-25,14,-42"},"\u201e":{"d":"333,34v0,-47,-51,-27,-51,-80v0,-30,25,-57,58,-57v36,0,69,32,69,83v0,52,-36,117,-106,188r-35,-30v24,-22,41,-46,51,-62v5,-8,14,-25,14,-42xm126,34v0,-47,-51,-27,-51,-80v0,-30,25,-57,58,-57v36,0,69,32,69,83v0,52,-36,117,-106,188r-35,-30v24,-22,41,-46,51,-62v5,-8,14,-25,14,-42"},"\u2026":{"d":"470,-46v0,31,-26,57,-59,57v-33,0,-59,-25,-59,-57v0,-31,26,-58,59,-58v33,0,59,27,59,58xm125,-46v0,31,-26,57,-59,57v-33,0,-59,-25,-59,-57v0,-31,26,-58,59,-58v33,0,59,27,59,58xm298,-46v0,31,-26,57,-59,57v-33,0,-60,-25,-60,-57v0,-31,27,-58,60,-58v33,0,59,27,59,58"},"\u2022":{"d":"341,-296v0,46,-38,83,-85,83v-47,0,-85,-37,-85,-83v0,-46,38,-84,85,-84v47,0,85,38,85,84"},"\u2122":{"d":"239,-635r0,40r-90,0r0,275r-45,0r0,-275r-86,0r0,-40r221,0xm303,-635r72,145r75,-145r33,0r0,315r-42,0r0,-215r-60,108r-16,-1r-55,-107r0,215r-42,0r0,-315r35,0"}}});
